5 100
</s> 0.004003 0.004419 -0.003830 -0.003278 0.001367 0.003021 0.000941 0.000211 -0.003604 0.002218 -0.004356 0.001250 -0.000751 -0.000957 -0.003316 -0.001882 0.002579 0.003025 0.002969 0.001597 0.001545 -0.003803 -0.004096 0.004970 0.003801 0.003090 -0.000604 0.004016 -0.000495 0.000735 -0.000149 -0.002983 0.001312 -0.001337 -0.003825 0.004754 0.004379 -0.001095 -0.000226 0.000509 -0.003638 -0.004007 0.004555 0.000063 -0.002582 -0.003042 -0.003076 0.001697 0.000201 0.001331 -0.004214 -0.003808 -0.000130 0.001144 0.002550 -0.003170 0.004080 0.000927 0.001120 -0.000608 0.002986 -0.002288 -0.002097 0.002158 -0.000753 0.001031 0.001805 -0.004089 -0.001983 0.002914 0.004232 0.003932 -0.003047 -0.002108 -0.000909 0.002001 -0.003788 0.002998 0.002788 -0.001599 -0.001552 -0.002238 0.004229 0.003912 -0.001180 0.004215 0.004820 0.001815 0.004983 -0.003111 -0.001532 -0.002107 -0.002907 0.002815 0.001579 0.000425 -0.002194 0.001524 0.003059 0.000194 
あ 0.002279 -0.004997 0.004357 0.000486 -0.001852 -0.002103 -0.000743 -0.002969 -0.004407 -0.002839 0.004320 -0.001797 -0.002695 0.002324 -0.001714 0.004798 -0.001596 -0.004614 0.002748 -0.000066 -0.003513 0.000998 0.001459 -0.000467 0.001829 -0.003965 0.000903 0.001824 -0.003046 0.000161 -0.000058 -0.002422 -0.002854 -0.004729 0.000010 0.000151 0.000008 -0.003979 -0.005007 -0.004784 -0.004356 -0.000543 0.001403 0.001191 -0.003193 0.005038 -0.002024 -0.001268 -0.001418 0.004757 -0.003789 0.001157 -0.001356 0.003208 0.000057 0.004293 -0.002839 -0.002638 -0.004208 -0.003697 -0.003210 -0.003144 0.002457 -0.001880 0.002713 0.003715 0.001379 0.002967 0.002498 0.002354 -0.003588 -0.003438 -0.003679 -0.000145 0.004170 -0.002772 -0.003095 -0.004212 0.003314 -0.004218 -0.000570 0.002206 -0.004646 -0.004491 0.001470 0.003562 0.004297 0.002143 0.003191 -0.003167 -0.003670 0.004006 -0.002779 0.001760 0.000589 0.001786 -0.001196 0.000195 -0.001702 -0.001123 
い -0.004441 -0.003337 0.003555 0.001013 -0.002406 -0.001626 0.002509 -0.003586 -0.002372 0.004742 0.004326 -0.004017 0.000853 -0.002243 0.000142 0.003068 0.004869 0.001963 0.004165 0.003175 -0.000260 0.004517 0.002570 0.004781 -0.001704 0.004755 0.004371 -0.001427 -0.004492 0.004882 0.000907 -0.002118 -0.000749 -0.000793 -0.003888 -0.001445 -0.000443 -0.005010 -0.003598 -0.001257 -0.000992 0.001799 0.000841 -0.000613 0.002933 0.001512 0.000532 0.003639 -0.001153 -0.001391 -0.000456 -0.002740 -0.003036 0.000234 0.004382 -0.001334 -0.000047 -0.004203 0.003703 -0.001561 0.002962 -0.002459 -0.000884 0.000076 0.003676 -0.000055 0.004482 -0.000721 0.002138 -0.000120 -0.003973 0.004251 0.001031 -0.003054 0.003077 -0.004204 -0.004418 0.003262 -0.003429 -0.002705 0.003550 0.003327 0.000652 0.004528 0.004906 0.004118 0.001821 -0.004368 0.002339 -0.004964 -0.001329 0.001561 0.000968 -0.001526 0.002963 -0.004634 -0.001434 -0.001322 -0.001685 0.003090 
う -0.004754 0.002739 0.001384 0.002846 0.003665 0.000257 0.000835 -0.004597 -0.001070 0.003231 -0.001743 0.004194 -0.001208 -0.003886 -0.002608 0.004958 0.003362 -0.003994 0.004868 -0.004203 -0.004811 0.002512 -0.000635 -0.002316 -0.000379 -0.002523 0.002430 0.003828 0.004151 -0.004400 -0.002122 -0.000016 -0.000960 0.003798 0.002187 0.004538 -0.003086 0.001664 0.004232 -0.001869 0.002898 0.001294 -0.004515 0.004212 0.004719 -0.002888 -0.000251 -0.001593 0.002438 -0.003853 0.003477 -0.000951 -0.001243 -0.002015 -0.004392 -0.003039 -0.001138 0.004594 -0.002533 -0.004679 0.000393 0.000583 0.003060 0.000063 0.003525 0.003012 -0.001280 -0.000625 0.000826 0.001281 0.003303 0.004025 -0.002525 -0.002541 -0.001586 -0.002735 0.001199 -0.003848 -0.002272 -0.005024 0.002196 0.004404 -0.002236 -0.004567 0.003010 0.001635 -0.002493 -0.000652 -0.001203 -0.000167 -0.001846 0.000068 -0.002783 0.003774 0.003856 0.003257 -0.001491 0.000269 0.000788 -0.002681 
え -0.004737 -0.001091 -0.001939 0.003005 0.002694 0.001791 -0.003099 0.003513 -0.001647 0.003406 0.001368 0.004774 0.002527 0.000709 -0.002298 0.005026 -0.002208 0.003317 0.005038 0.004907 -0.000749 0.003299 0.004548 -0.002160 0.004715 -0.004982 0.000268 -0.000415 0.004182 -0.004312 -0.001461 -0.001629 0.000398 0.004745 -0.001671 -0.004929 -0.001491 0.004224 0.001019 0.002879 -0.003859 -0.001275 0.000554 -0.002340 0.003531 -0.004796 0.003274 -0.002393 0.003214 0.003215 -0.001904 0.003549 0.000398 0.004793 -0.003523 -0.001240 0.002784 0.004427 0.002270 -0.001024 0.000489 -0.000798 0.001929 0.002599 -0.003810 -0.001299 0.004321 0.000309 0.005008 0.004847 0.000792 -0.004611 0.004566 0.002168 -0.004581 0.003627 -0.004923 -0.002226 0.004458 0.003340 -0.000713 0.001230 -0.003165 -0.004694 0.002223 0.004453 0.004094 0.002801 0.001535 0.001928 -0.000092 0.001607 -0.002614 0.000906 0.000925 -0.000075 0.002527 0.000733 -0.004169 -0.001359 
